花粉 -0.015944 -0.011645 -0.035115 0.026455 -0.018897 -0.026009 0.025074 -0.005395 -0.00068142 -0.00031717 0.01519 0.014565 0.033141 -0.018212 0.028476 0.017178 -0.0058724 -0.0083117 0.03884 -0.00045518 0.011408 -0.029272 -0.009494 -0.020641 0.028987 0.0051237 -0.00016353 -0.0092857 0.0088164 0.0095838 0.0076486 0.0027512 0.0060784 0.035954 0.027819 0.0039093 0.042903 -0.0040918 -0.010774 0.00075422 0.026873 -0.028938 0.019146 -0.029667 -0.041827 0.0029186 -0.038643 0.0027002 0.007633 -0.026577 0.024373 -0.017846 0.0088684 -0.017071 0.043061 0.0044485 0.040594 -0.012694 -0.019412 0.00090181 -0.0044752 -0.016631 -0.026632 -0.030146 -0.01267 -0.00087358 0.023227 -0.010957 0.014063 0.026899 0.01707 -0.030748 -0.034275 0.023055 0.028574 0.0062905 -0.015858 0.0057191 -0.031925 0.0078231 -0.01748 0.0015497 -0.0070531 -0.021414 -0.022949 -0.0090908 0.0025617 0.016816 0.027424 -0.016558 0.006533 -0.015532 -0.03598 0.0063609 -0.0041342 0.011065 0.01702 -0.0035717 0.024606 0.022308 
滅び -0.010236 0.0029807 -0.0049607 -0.008516 0.0039573 0.0073613 0.0034354 -0.0012391 -0.0067384 0.007247 0.0054426 -0.0028376 0.0017476 0.0051421 -0.00012669 -0.0072589 0.0030568 -0.0029699 0.0018886 0.0096526 -0.0011859 0.0027107 0.003984 0.0013684 -0.0031176 0.0039571 -0.0072949 -0.0091163 0.0081909 -0.0095392 0.00029712 -0.002094 -0.010126 -0.0011161 0.010695 0.0035213 0.011159 -0.0023473 -0.0078311 0.0031033 0.0072179 -0.003413 -0.0033431 -0.00050593 -0.0024234 0.0013049 -0.00074955 -0.00050509 0.0051931 -0.0085904 0.00036581 -0.0078681 -0.0074713 0.0075126 0.0043254 -0.00092306 -0.0068719 0.0049772 -0.0042034 0.0090637 0.0011777 -0.0015427 -0.00081003 0.0038716 -0.0012505 -0.0077063 -0.0023374 9.8371e-05 -0.0023137 -0.0057853 0.0031798 -0.0012319 -0.0063977 0.006092 0.0087828 0.00031298 0.0089273 0.0047415 0.0078175 0.00071993 -0.0076525 -0.0068163 -0.0088938 0.0061266 0.0077547 -0.0020934 0.0050013 0.00043044 -0.0058179 0.0076313 -0.0078199 -0.0099231 0.0052448 0.00021863 0.0017366 0.0085496 0.0054717 0.0013421 0.0072875 -0.0014184 
滅びろ 0 0 0 0 0 0 0 0 0 0 0 0 0 0 0 0 0 0 0 0 0 0 0 0 0 0 0 0 0 0 0 0 0 0 0 0 0 0 0 0 0 0 0 0 0 0 0 0 0 0 0 0 0 0 0 0 0 0 0 0 0 0 0 0 0 0 0 0 0 0 0 0 0 0 0 0 0 0 0 0 0 0 0 0 0 0 0 0 0 0 0 0 0 0 0 0 0 0 0 0 
